	-2500:-2401	-2400:-2301	-2300:-2201	-2200:-2101	-2100:-2001	-2000:-1901	-1900:-1801	-1800:-1701	-1700:-1601	-1600:-1501	-1500:-1401	-1400:-1301	-1300:-1201	-1200:-1101	-1100:-1001	-1000:-901	-900:-801	-800:-701	-700:-601	-600:-501	-500:-401	-400:-301	-300:-201	-200:-101	-100:-1	0:99	100:199	200:299	300:399	400:499	500:599	600:699	700:799	800:899	900:999	1000:1099	1100:1199	1200:1299	1300:1399	1400:1499	1500:1599	1600:1699	1700:1799	1800:1899	1900:1999	2000:2099	2100:2199	2200:2299	2300:2399	2400:2499
A549CtcfEtoh02Sig	0.265291872631	0.289189474214	0.2966552208	0.306589604225	0.317996219136	0.326279506532	0.335311092082	0.350357818448	0.361959147223	0.362837093207	0.371857458863	0.377904518767	0.390655343829	0.403128042052	0.409392933641	0.432356484835	0.460740455031	0.480322278924	0.493417396728	0.505185483278	0.529309461548	0.542744449492	0.526581881676	0.510381058064	0.501219485632	0.486794042767	0.470333350405	0.453413030427	0.436290932736	0.438851360759	0.443917793197	0.439291358144	0.414105818192	0.404550061267	0.410302375291	0.404097465569	0.39394397644	0.38058373003	0.370067682417	0.365149032199	0.361951822619	0.355730257317	0.348096652414	0.341884829825	0.336530992221	0.330273383034	0.315347284802	0.300590613525	0.288099476754	0.270307942129
HmecH3k36me3StdSig	0.0415696480827	0.0441850255236	0.0335390081936	0.0269006921764	0.0297779073663	0.0266800541551	0.0246342522707	0.0320031847076	0.0342785157487	0.0308756004429	0.02271347332	0.011230320729	0.0110047882708	0.0135324447797	0.00947297878529	0.0120491816333	0.0161393640761	-0.00265212121152	-0.0244297169523	-0.0241352076678	-0.0231585678542	-0.02195487688	-0.0238666838924	-0.0228492686642	-0.00710646334816	0.0016151364323	-0.00172154029952	-6.74280660327e-05	-0.00671189112638	-0.00637998838479	-0.0059608421777	0.001474838134	0.0161749336293	0.0160142112605	0.0199330338732	0.0246430882281	0.0386136309598	0.0468829328528	0.041803065959	0.046228861437	0.0535373853939	0.0540048116455	0.050531945574	0.0522989406327	0.0658138596056	0.0778385042581	0.0783176067262	0.0672946533479	0.0679420680533	0.0744076148652
HmecH3k4me1StdSig	0.139915475798	0.144493121773	0.147135733369	0.153781594658	0.16503195597	0.168637644923	0.166047963387	0.162929848153	0.16833272602	0.173731161581	0.174232870953	0.170639858521	0.171074004295	0.171954886625	0.162085331387	0.148797214505	0.142299422611	0.124624855057	0.10438142754	0.082274197889	0.0623281571916	0.0459638711016	0.0246079978734	0.00772493612522	0.0125862819962	0.0204194220719	0.0210477068148	0.0206775717059	0.0217985374609	0.0154454835706	0.00373879109703	-0.001199751865	0.000311666732877	0.00429531008034	0.00888033276442	0.021252024005	0.0370514086183	0.0576229440733	0.0735134817186	0.0882814852141	0.104690182735	0.117069294343	0.12616114767	0.135106924334	0.144039786141	0.148120829555	0.147496297664	0.142591679698	0.139537812881	0.13572812173
HmecH2azSig	0.073508080879	0.0894490642366	0.100021301465	0.103138933243	0.105740466778	0.108578591181	0.112899025563	0.115399059284	0.124491909472	0.133150343129	0.127594055015	0.127516261767	0.129848228688	0.127984600599	0.124937362961	0.117120478233	0.100652684418	0.0855163978909	0.0691033076695	0.0399879648499	0.00894365698604	-0.0139871353992	-0.025540652406	-0.0317293261092	-0.0404980977483	-0.0480846241559	-0.0474026899819	-0.038871831822	-0.0302695061434	-0.0159174960717	0.00495675418266	0.0288362495621	0.0515528825569	0.0702810236633	0.0833735680604	0.0911787282687	0.100337660801	0.109537839634	0.111998004536	0.111050228336	0.122186240341	0.120686559136	0.108625976587	0.106882708806	0.106333599876	0.103700209061	0.100555187762	0.0898598233241	0.0768271387956	0.0673783715437
HmecH3k4me3StdSig	0.0912363342222	0.103202586225	0.110079076595	0.102697838842	0.106836304253	0.114377500398	0.117849424537	0.125038527316	0.122573745106	0.126336302305	0.13675606749	0.139857581334	0.142087337649	0.13201185721	0.123681891834	0.12162546122	0.118281440284	0.109358351217	0.103105809316	0.0893592419764	0.0666156188627	0.0481479237244	0.0369009421131	0.0301589273442	0.0262050678934	0.0255418445045	0.0328171516506	0.0435455120041	0.0548288752216	0.0622455221099	0.0724748211831	0.0931038780132	0.114867036092	0.132933951268	0.150975658658	0.160465569374	0.165161852055	0.170244574914	0.169220492905	0.171343901417	0.17978237714	0.178849110802	0.170595159879	0.167787306175	0.168948259949	0.168188496191	0.166379300634	0.163209409799	0.154527174609	0.141718374694
HmecH3k27acStdSig	0.102819222724	0.110365870842	0.116183330834	0.111260839141	0.117226218448	0.126213224452	0.135097284045	0.144127196768	0.151684273494	0.156537848163	0.161358599883	0.160412125648	0.157719154501	0.154536086182	0.148858604589	0.150131195272	0.14429316488	0.130181308428	0.116006822372	0.0990807437798	0.083064882771	0.0696517491014	0.0602797406338	0.0578752739184	0.0650040993467	0.0653639720299	0.0684425599124	0.0759311501602	0.0818877910785	0.0867006574298	0.0922237743941	0.102052899933	0.114796463534	0.131939376572	0.146917231572	0.154188655562	0.157415448546	0.160882841424	0.165120020594	0.166674415191	0.169381742832	0.17212111048	0.170391439492	0.173003563023	0.167953603162	0.153891262915	0.151197470499	0.150483350922	0.143033118521	0.141490487278
HmecH3k9acStdSig	0.106687226846	0.108014011227	0.110576267051	0.1208998473	0.133696378843	0.140321603263	0.149216423101	0.150451619983	0.152664551369	0.154124658467	0.154699912886	0.151773686756	0.150688073243	0.151185529431	0.153630830296	0.149579338393	0.142634736401	0.128836599226	0.116971261654	0.10153778784	0.0855101424634	0.0723146962585	0.060010590501	0.0546572556572	0.0531927324989	0.051287495533	0.0529585880644	0.0572112198624	0.05996111268	0.0639681085587	0.0713516826471	0.083321758837	0.101699799223	0.122708681345	0.143051535011	0.154489860075	0.158922725276	0.164900960384	0.173084993869	0.177638542596	0.181720469533	0.178199444413	0.173542430835	0.178450132194	0.181199537365	0.173366432288	0.166535202635	0.156650528161	0.143935828767	0.144841018619
K562Chd1a301218aStdSig	0.0892474812336	0.0883677311046	0.094639862627	0.102721041195	0.106771100002	0.117524609334	0.124556008169	0.115230310449	0.112532048009	0.116198816118	0.109989781651	0.108117874676	0.108419204291	0.108262894462	0.110772098059	0.120289713891	0.125989208891	0.119091452354	0.108418278055	0.0960911605652	0.0840707638587	0.078994030697	0.08503839603	0.104824324111	0.123309384845	0.111850228421	0.0957591115465	0.0939965454984	0.0933898880948	0.093204309767	0.0975328627579	0.100287305465	0.106340637857	0.113575429068	0.119640682687	0.124155833768	0.124011072192	0.121490840779	0.12069065503	0.116961917088	0.120087479816	0.123210644774	0.123620900228	0.126240959593	0.125342624727	0.125345143345	0.119119914336	0.112042413628	0.103958953622	0.110501388146
K562Sap3039731StdSig	0.077697049301	0.0783214321381	0.0811718844734	0.0798392158129	0.073455642091	0.0732033357931	0.0838055804816	0.0972045112517	0.102394278088	0.101296070734	0.0986530224604	0.10251497706	0.111756409877	0.116855678411	0.113949640583	0.114293225777	0.114989864523	0.109475235064	0.100515370788	0.0849231302161	0.0684139465904	0.0484746908218	0.0447974743412	0.0453322048597	0.0356785624068	0.0292459527262	0.0320349343032	0.0452684883324	0.0634535128531	0.0778885437692	0.0880944994119	0.0969334885687	0.106041593625	0.120127950794	0.125935046615	0.12327987074	0.118689343312	0.120935740154	0.124298734225	0.121772536388	0.11445156952	0.10538736879	0.101196845121	0.0991119021298	0.0980812845028	0.0932893149881	0.0847080987626	0.0843907843857	0.0855910584682	0.0753475819201
